{
  "input_mean": [
    426.3751441172249,
    494.3882486818181,
    47.527547514354126,
    70.16374888516754,
    3.502389755980863,
    -0.20193955741626798
  ],
  "input_std": [
    263.541902883634,
    132.62506179863792,
    621.0987169880564,
    275.2792686734434,
    14.017702716657942,
    1.0142721203533307
  ],
  "output_mean": [
    427.22514598564607,
    495.53056952392336,
    49.73482502392351,
    70.28009965311013
  ],
  "output_std": [
    264.59399315592594,
    131.62028286578794,
    621.5543729526745,
    275.259865740099
  ],
  "layers": [
    {
      "W": [
        [
          0.058699543262954276,
          -0.27212997518143406,
          0.11130264402335766,
          0.15821736243252776,
          -0.3264106292993047,
          -0.2052876374646344
        ],
        [
          0.014096602669761515,
          -0.02712068451863945,
          0.02240034952038474,
          -0.20038350122534052,
          0.1414934274845945,
          0.10248629560100109
        ],
        [
          -0.012259207235994735,
          0.22472706980515098,
          0.11826672110418908,
          -0.21821930276413512,
          0.05245728840151282,
          -0.1833500107118671
        ],
        [
          0.10920991901127272,
          0.0020274125567398696,
          -0.013722680556585199,
          -0.121998090470587,
          0.20720211400353344,
          -0.027317910383859088
        ],
        [
          -0.0894869892484304,
          -0.16583246495993034,
          0.08023364306430417,
          0.06318887261289438,
          0.0453323293904611,
          0.08912846975304196
        ],
        [
          0.4481165528921282,
          -0.09781079026379913,
          -0.10198439473945374,
          -0.11867692931670824,
          0.1421916080816931,
          0.1857233050908872
        ],
        [
          -0.029889659109904303,
          -0.09256240845825063,
          -0.1051051554095854,
          0.16132112813826494,
          0.16925390464225323,
          0.10280931850327986
        ],
        [
          -0.16435273174334813,
          0.0500110550726537,
          0.016763680558393317,
          0.04806140163213462,
          0.1294433198467286,
          0.06209719946477605
        ],
        [
          0.11720384367822576,
          0.004755416699955101,
          0.046768686177531785,
          0.07930787310197421,
          -0.21214773779792118,
          -0.04330763862856682
        ],
        [
          -0.0942868089887735,
          -0.2105897492386418,
          -0.05448507643256088,
          0.2465700708244944,
          -0.12780496321480408,
          0.18866680729698435
        ],
        [
          -0.3223722761272181,
          -0.023250950178102515,
          0.11392060806514091,
          0.14528462483115376,
          0.16592037595891398,
          0.15266340778794865
        ],
        [
          -0.05672104880200469,
          -0.05564549698245049,
          0.169367625348571,
          -0.043668568247301316,
          -0.16906580798938245,
          -0.1924591325692264
        ],
        [
          -0.16703177207738945,
          0.050738085285712844,
          0.06337306581007657,
          0.10608587837647147,
          -0.06715501948141024,
          0.059015862429686095
        ],
        [
          0.13586047081622965,
          -0.012316476202527444,
          0.09239570158219466,
          -0.12950527839823886,
          -0.035356534624354716,
          -0.0667136591451792
        ],
        [
          -0.24698873677733246,
          0.112616861169524,
          -0.1130116170923255,
          -0.0037201941481452548,
          0.07170069057360216,
          0.06650338939332416
        ],
        [
          0.10402668044957208,
          0.004557005756625765,
          -0.12533521321284732,
          -0.04874426346281044,
          -0.29475169766181514,
          -0.23260238184849977
        ],
        [
          -0.2237121247592084,
          -0.24948545699032837,
          0.027919400121816342,
          -0.12572815062397266,
          -0.06569868293340243,
          0.2317274084789777
        ],
        [
          -0.09262486558726289,
          0.12971678062569536,
          -0.18145103434227486,
          -0.10631129569258448,
          -0.1484259780472564,
          -0.040243616483557246
        ],
        [
          0.14011181330535064,
          -0.30182943694066,
          0.07459445934855388,
          0.05979857443754309,
          -0.1126782720848558,
          -0.24639132131966834
        ],
        [
          0.046821906890385,
          -0.07284586686243122,
          0.05469208142980276,
          -0.0038392595118172525,
          0.2971023448602322,
          -0.021211048005882836
        ],
        [
          -0.14757068721119326,
          -0.05221286633997931,
          -0.00010290390232411697,
          0.29336243243482274,
          0.16008437996220992,
          0.06842557108164028
        ],
        [
          0.23812542158561398,
          -0.26893696147100704,
          -0.09749364111767139,
          -0.14528191747965885,
          -0.05037717180712983,
          -0.23363473803581694
        ],
        [
          0.13523256653497312,
          -0.03453608050600274,
          -0.33933201076947755,
          -0.1532483999101203,
          -0.0021104547447285842,
          0.14470346229180553
        ],
        [
          0.33520721043390245,
          0.4829953000056958,
          0.0804810616162829,
          -0.14094592094494313,
          -0.38612153318307324,
          0.04556805281504741
        ],
        [
          -0.14757628975884804,
          -0.12175954146030209,
          -0.11159275147098252,
          -0.0024859636603395477,
          0.15883386307899436,
          0.03162169680183343
        ],
        [
          -0.03942585438552337,
          -0.20073568802607564,
          -0.3377834696793133,
          -0.1563412933780741,
          -0.018357484540077063,
          0.3390920728813288
        ],
        [
          -0.014356211728345378,
          0.1940478481903069,
          -0.0825815145349305,
          -0.24686344908208924,
          -0.1791324575039656,
          -0.12249614946707514
        ],
        [
          0.4095016138850916,
          -0.09429814944357602,
          0.10621384834836588,
          -0.17054167890901187,
          0.14496229243404654,
          0.06614691663721582
        ],
        [
          -0.056752918217512265,
          0.022090072181942907,
          -0.1172311856761572,
          0.09325907051314446,
          -0.06340831458927329,
          -0.21595728659177205
        ],
        [
          -0.2011592206929034,
          0.06245644717783886,
          0.29449894681853767,
          0.0476953934454541,
          -0.029079195640203913,
          0.023319227956750385
        ],
        [
          0.2978526228596264,
          0.07721775410347187,
          -0.1669948510487673,
          0.17586168369117533,
          0.019173659793014195,
          0.2511505637630411
        ],
        [
          0.10741061702179541,
          -0.1785547537336752,
          -0.1849474277369086,
          0.21403645058318724,
          0.3460163967357735,
          -0.03104529762505062
        ],
        [
          -0.136506941128234,
          0.22178536190232767,
          -0.20240513403572877,
          -0.18929974911064384,
          0.10206855767926372,
          -0.05418069568500519
        ],
        [
          -0.015152978670266298,
          -0.03523277891616901,
          0.07636475116337875,
          0.27184787556183504,
          0.0410596569418891,
          0.1082100714910881
        ],
        [
          -0.3788871249799806,
          -0.016235029680941055,
          -0.13534056671750413,
          -0.2761353204152774,
          -0.13391500055697536,
          -0.030811641794201306
        ],
        [
          0.159800138849041,
          -0.2761221365539309,
          -0.010484704730265708,
          -0.0796270751062855,
          -0.05515580646295083,
          0.17700083434405867
        ],
        [
          0.0891695085754982,
          0.2480624252657078,
          0.09248861401275105,
          -0.13299680692403193,
          0.029978589464317203,
          0.04353975532916242
        ],
        [
          0.034864894348573656,
          -0.26323753460995736,
          0.008512581662134127,
          0.04915289997581573,
          0.4326540289085002,
          0.34379601903453033
        ],
        [
          -0.1478777955349918,
          -0.0355767206657701,
          -0.2798844805780563,
          -0.1257472827037558,
          0.03805714564319565,
          0.21190065385231927
        ],
        [
          -0.1559028322714792,
          -0.10143276870551259,
          -0.3704760289853981,
          -0.11403041494967099,
          -0.1587514946339516,
          -0.07519753986900504
        ],
        [
          -0.2104214223729933,
          -0.006445674810062347,
          -0.3022361545753806,
          -0.25730570548379444,
          0.3477182905175663,
          -0.2330553609947003
        ],
        [
          -0.23412029771870507,
          0.31787992442250085,
          0.5034876073118598,
          -0.28896255191130094,
          -0.08914292899488521,
          0.07684893833229416
        ],
        [
          0.3071975102345058,
          -0.1808363742442057,
          -0.012412164963977661,
          0.09007101068958688,
          0.09351572791480302,
          -0.06778131643450701
        ],
        [
          0.004644924977521069,
          -0.32178513690165267,
          -0.06473480487772083,
          -0.03434002733998708,
          0.02843687545300305,
          -0.09030303545908902
        ],
        [
          0.06528685927842084,
          0.19259873347017883,
          0.09904866320778763,
          0.04927680716420343,
          0.047539995121248846,
          -0.01375371637221362
        ],
        [
          -0.14138278285215264,
          0.08332992958963777,
          -0.014697473947255452,
          0.34680996616461135,
          0.28306197551903167,
          0.06692204072045044
        ],
        [
          -0.11099344928331599,
          -0.2575113295143701,
          0.1612469250170736,
          0.025529393958885833,
          0.06193241664458981,
          -0.28291185189915885
        ],
        [
          0.11465122306648903,
          0.07769984386449777,
          -0.22102554536844427,
          -0.05063214743854433,
          0.03586171397141709,
          0.007862678933735882
        ],
        [
          -0.07789146233418157,
          -0.013403012939397328,
          -0.0598485464588644,
          0.044614727318532374,
          0.2353680339929528,
          -0.4466210358900962
        ],
        [
          -0.0727550244618292,
          0.007744769114145903,
          0.03747604022330102,
          -0.1047450573225403,
          -0.2968602625871796,
          0.08952827076066588
        ],
        [
          0.37078797396608554,
          -0.21885420848884798,
          0.1369035435498125,
          -0.07530763178647057,
          0.02468158970432249,
          -0.1744789610453394
        ],
        [
          -0.07280412812414974,
          0.24856100814699056,
          0.12836738725769647,
          0.3455245041517873,
          0.23073778980184606,
          0.07689723741144962
        ],
        [
          0.2739603236811225,
          0.06995713727494428,
          0.1398272110717914,
          -0.08052664454920608,
          -0.008703941568382587,
          -0.12893030509061085
        ],
        [
          0.2566195682952758,
          -0.05988020919288157,
          0.18939109767391546,
          -0.0745851449478707,
          0.26292898196666314,
          0.11155243948173074
        ],
        [
          0.3822002384140826,
          0.12791092154868364,
          -0.33497388230335956,
          -0.020531038999627105,
          -0.23682885539322407,
          -0.07783161562694237
        ],
        [
          0.21242638530368174,
          0.08914198715767847,
          -0.08821682116006942,
          -0.13728907097815812,
          0.002705807443393758,
          -0.19745922615227635
        ],
        [
          -0.09559100420691626,
          0.06056518372488793,
          0.18237997946598772,
          0.10657480780530987,
          -0.38766078781757024,
          0.02977069808767366
        ],
        [
          0.005659358026680264,
          0.09474216182208094,
          0.30095748105777903,
          -0.42455983807961667,
          -0.09361162721773308,
          0.08333420717879021
        ],
        [
          -0.2896020237472485,
          0.28628633218513305,
          0.003534091804465847,
          0.16718787349868644,
          -0.12873046138136984,
          0.12802362662777816
        ],
        [
          0.14820028267710972,
          0.024463452744072398,
          0.05668009051184039,
          0.04164035808606157,
          -0.16071587163225487,
          -0.030289554545867136
        ],
        [
          -0.038769904857330985,
          0.07370741299500766,
          0.1656344512528575,
          -0.21843671402399945,
          -0.033825699744417646,
          0.2383648334562162
        ],
        [
          -0.1514411170445947,
          -0.20207818634769262,
          0.03871054978424254,
          0.10790163328532645,
          0.008788371658896628,
          0.27036719199537373
        ],
        [
          0.1262077511221298,
          0.12412730602386535,
          0.11522833731842981,
          0.39539060640965196,
          -0.014074312450787633,
          -0.33740018629897445
        ],
        [
          0.28445477886221743,
          -0.11101523338344182,
          -0.011287962887001438,
          0.24473648070436474,
          -0.2874152602689824,
          -0.20084185537100385
        ]
      ],
      "b": [
        0.024330676157626165,
        0.015061287190434328,
        0.07565198961823932,
        -0.009409691352258972,
        0.0639959235264893,
        0.056037481158927524,
        0.014970126874433722,
        0.04347190296303428,
        -0.048393987617676215,
        0.033559133498654865,
        0.06840391521363533,
        -0.03969460754692712,
        0.01702219366293726,
        0.022946484254160942,
        0.06823552515997597,
        0.020595112240722337,
        0.028700167935813748,
        0.0451872212350045,
        0.027308405386636318,
        -0.016544383301372263,
        0.038551928345482774,
        0.017172767019527337,
        0.04771398700401042,
        -0.014584951447747251,
        0.022173892369619967,
        0.0652464918862067,
        0.052246158864813444,
        0.02812490473346181,
        0.006031368208351513,
        -0.0037914368507211966,
        0.03349388127987049,
        -0.015050495284473641,
        -0.008620687072528901,
        0.04272771179056398,
        0.03216162531278384,
        0.016185999327703298,
        0.046350251891066716,
        0.0653730362684644,
        0.02081288534726828,
        0.021014065305569752,
        0.008578564836332583,
        0.06324599686947585,
        -0.014358868539879551,
        0.012661229725905665,
        0.03570814338924414,
        0.017520261241389043,
        -0.018279760345788126,
        -0.004563060308177276,
        0.007646949114518644,
        0.03126268360920494,
        0.03527548694295326,
        0.05986533760638504,
        -0.0018377485158155968,
        0.022701654932862803,
        0.0475180136724297,
        -0.042513376438783355,
        -0.024036782638137234,
        0.06570487942527971,
        0.04465703143007473,
        -0.02397279503933859,
        0.015395711467392664,
        0.034897876000642175,
        -0.017798416093157243,
        0.03245173991383847
      ]
    },
    {
      "W": [
        [
          -0.20367549937772628,
          -0.09924496686037758,
          0.054663339226041226,
          0.06552348035159637,
          0.03271223159371142,
          -0.1765957354865458,
          -0.29255712440424547,
          0.004092859809193568,
          -0.060433788377716804,
          0.04927762429066209,
          0.0814321989915891,
          0.016774239813991468,
          0.08912747615080575,
          0.02869835197207517,
          0.06252719152062453,
          -0.0884531952410393,
          -0.02181000980390395,
          0.023320056665078977,
          0.10194837543136186,
          -0.04933102442536327,
          0.055624248330298456,
          -0.03322984898942238,
          -0.014692770916016295,
          0.10368066870698614,
          -0.24966812631497298,
          -0.16208293908596375,
          -0.18510728643598812,
          -0.2917020149810381,
          -0.08923755529225844,
          0.09141876260427392,
          -0.04021546013185473,
          0.019187035472852085,
          0.13622830773642866,
          0.1577304750467183,
          -0.00801265689351805,
          0.16919823619617466,
          0.011483534735152458,
          -0.10464135133469563,
          -0.07435904620071992,
          -0.18590424817846413,
          -0.1113122065721343,
          -0.04384572269051438,
          0.10033580534113465,
          0.2151035514073686,
          -0.17531788010354768,
          0.0362753999021166,
          -0.13151905379537102,
          0.059337136057900246,
          -0.018897217237396548,
          -0.22860534381621703,
          0.11603712394606054,
          -0.08770456543535955,
          -0.06669304315787093,
          -0.13371905141121124,
          -0.08193452173435913,
          0.05348630508686465,
          -0.028218078251582547,
          0.041739168360164426,
          0.03547790469099224,
          0.16489710580433461,
          -0.04238450763130828,
          -0.18886959370873907,
          0.12052800968146517,
          -0.04634546221970713
        ],
        [
          0.15643734904941295,
          0.05210787804525836,
          -0.011902738531953228,
          0.0508505657388051,
          0.24991020185827847,
          0.27584872945053973,
          0.01546593988745176,
          0.0176273910060212,
          0.13439151120408468,
          -0.0986164121397066,
          0.03612680669620071,
          -0.0024413777410521925,
          0.03296581944393404,
          -0.10009379924662974,
          -0.20597444223236677,
          -0.25693499883765625,
          -0.13215453961827645,
          -0.06165326748197458,
          -0.01510728447384246,
          0.25133678776974305,
          0.13426659304598226,
          -0.10169113495559545,
          0.0458839606671745,
          -0.04977544394335517,
          -0.03143283881011176,
          0.03340939816204179,
          0.07568024329176244,
          -0.022991867690911254,
          0.13005040013767813,
          -0.1448829476686452,
          0.0020044608012788623,
          0.3396679295367671,
          0.025440312695692104,
          0.17936283927178373,
          0.00574725109351057,
          0.09108170954781328,
          -0.00373983995313191,
          0.0005677226126414105,
          -0.09871790557288893,
          0.05920451626570187,
          -0.10697914752649176,
          0.0867409093744686,
          0.15599024408826787,
          0.06523029114090362,
          -0.034449550039057385,
          0.05103097992401961,
          -0.02773377605802704,
          0.11623735215524093,
          -0.22624821221764949,
          -0.04333514245124795,
          -0.22616165516255857,
          -0.18969347492268707,
          0.17738959852020686,
          0.1287236436583373,
          -0.09370569181133029,
          -0.18489627018089513,
          -0.37430353569477154,
          -0.0648199130153364,
          0.2907598700945423,
          0.054105661761953895,
          -0.07023698654375858,
          0.0646818263031066,
          -0.20229221906420836,
          -0.028918356796500243
        ],
        [
          0.013794581713515636,
          0.009793647062571005,
          0.13183486368746625,
          0.0587730868881783,
          0.09229810662912985,
          -0.06779761845397694,
          0.11546145294281837,
          0.21167079311814024,
          -0.12102658101921539,
          -0.10587830560967078,
          0.18208058422162865,
          -0.013587295508035805,
          0.1815067589296305,
          -0.043607557391860015,
          0.1925405366126331,
          0.019348935962283147,
          0.05887270008263218,
          0.1998578997200522,
          -0.04201544948874158,
          -0.10519780417792796,
          -0.0503459951891821,
          0.06358118903357818,
          -0.18783681689218792,
          0.09858862516572811,
          -0.06112212709695949,
          0.1609958791473128,
          -0.2823618640910341,
          -0.07374420966814728,
          -0.2099977637267051,
          -0.08601122028533707,
          0.03775737577719725,
          -0.01813257524139005,
          -0.020514399234334246,
          -0.015049667443719592,
          0.05435966440796075,
          -0.11524633808168429,
          0.10920295359576766,
          0.11172539908698902,
          0.06238910847637561,
          0.07418756770960204,
          0.056313111831547344,
          0.31426408514302673,
          -0.0024083742764135804,
          -0.034120556741124,
          -0.08365606904513917,
          -0.12297953358314312,
          -0.14806669213001372,
          -0.11010935980110578,
          0.004028948672091199,
          0.055860351924817704,
          0.02317635733389949,
          -0.0784121213435033,
          0.13117299112705194,
          0.1137944447165592,
          -0.02380674538419833,
          -0.06764687162139672,
          0.07747258801914164,
          0.07394577205670272,
          -0.17005832654814154,
          -0.007754469718821383,
          0.06454133174029023,
          -0.09981029211236443,
          0.02926412903737462,
          -0.18103189727156005
        ],
        [
          0.18935549456749484,
          0.1564681902817296,
          -0.033063358703083134,
          0.043790939399050016,
          -0.2847940396145458,
          -0.14695272225972747,
          -0.018205248873586453,
          -0.12873692243254864,
          0.08940705867973989,
          0.28252031748928846,
          -0.12865114963349086,
          -0.10551403919249391,
          0.03707165713221767,
          0.20041313192118482,
          -0.14669825333082875,
          0.028948641250617288,
          0.24275960145369127,
          -0.20850552103373082,
          -0.14208716629060197,
          -0.05163240650712971,
          -0.045473868737575654,
          0.10958718663038938,
          0.02974429497110101,
          -0.22928346885842463,
          0.07631910057681392,
          -0.055419519928308916,
          0.15705388206618387,
          -0.07943341307301942,
          -0.07535207547766978,
          0.07300923216861332,
          0.09712987821980289,
          0.07895742690716552,
          -0.21246976185809122,
          0.08618284652630293,
          -0.12721279316991466,
          0.043652621448953904,
          -0.18096834718652205,
          0.07596188374507093,
          -0.09377653683605884,
          -0.14979799873472593,
          0.08872646697363253,
          0.030044609906465833,
          -0.06571987238821035,
          0.20028603679410606,
          -0.057062037219998064,
          0.022659254243290624,
          0.046658940686752054,
          -0.0818241583721929,
          0.0601677975589511,
          -0.0661099923197949,
          -0.04406315954538005,
          0.17997029313809268,
          -0.1341688817246045,
          -0.2989590786671972,
          0.19157270210088947,
          0.312986947104573,
          -0.04652950317799413,
          -0.24218197505727582,
          -0.02954570614802539,
          -0.03878784121276702,
          -0.023304798898457317,
          -0.11258612022856576,
          0.07736410096290396,
          0.0759378487575242
        ],
        [
          -0.1868763848496645,
          0.0919574415338442,
          0.25775233926993185,
          0.032237766091128384,
          -0.042099199759219386,
          -0.0011812885388523158,
          0.07622981230370576,
          -0.21546537271870286,
          0.02054883787216278,
          -0.04880799368285126,
          0.23034654364883034,
          -0.02398008673480809,
          0.20848595138993997,
          -0.13527890763573835,
          0.0697980762017575,
          0.03868770920935232,
          -0.11446235068373728,
          0.017361465394265974,
          0.15091020388290544,
          -0.028321100706671227,
          -0.2121733348619967,
          -0.0022177021632879285,
          -0.1161394880305614,
          -0.0406917029887305,
          -0.01189408016260252,
          -0.21769681533343418,
          -0.21193729545290463,
          0.08229811959958609,
          -0.06542595636243566,
          -0.3220177673149481,
          0.10368674467236726,
          0.03573680716094946,
          -0.09502541689444083,
          -0.16509277484993012,
          0.09165090881793937,
          0.04547346141642738,
          0.301413301423024,
          0.06785008161946174,
          0.04339022923482092,
          -0.02544543408316568,
          0.09570687036720381,
          0.0763485575823764,
          0.16351339507401616,
          -0.06587382698901333,
          -0.04921924442881252,
          -0.05978267753048368,
          0.09713857871284082,
          0.18918681110439942,
          -0.05563897831619352,
          -0.05783129295494905,
          0.050089162573154114,
          -0.023657794240698894,
          0.13128834230003428,
          -0.26291735670560334,
          -0.10342076640228211,
          -0.09148274219302611,
          -0.2901213083486231,
          -0.12312666743704605,
          -0.11512118500762476,
          -0.024997609410279557,
          0.13923097921938235,
          -0.030691971065988113,
          -0.12870684164327845,
          -0.007119317651691123
        ],
        [
          0.1365194572205957,
          -0.116621665866831,
          -0.11209554700190683,
          0.08445387185398112,
          -0.023889378898145405,
          0.11755830529623229,
          0.00287000152338463,
          0.09321520782057213,
          -0.12298236934343518,
          -0.0006277703744063433,
          -0.019725359833909436,
          -0.15182207691658012,
          -0.19244047352617985,
          0.08938388219576894,
          -0.04530598043382815,
          -0.11758820538888624,
          -0.014090051101500883,
          0.14382755700654504,
          -0.28322341293132247,
          -0.17052007004213454,
          -0.10866984288948017,
          0.19209568997430687,
          0.05042325117917138,
          0.12285999371048735,
          -0.14241861681916196,
          -0.1318609506569543,
          0.054668448579235154,
          0.04044854550126795,
          0.06993684657482307,
          -0.016131435327030423,
          0.06430134618845344,
          0.03596822289879787,
          0.09317647164810154,
          0.10721333058983329,
          -0.21357087773645606,
          -0.27421488234961866,
          0.13677334238720226,
          0.1718048904055212,
          -0.12713283669660927,
          -0.22727065484811976,
          0.003941651610452599,
          0.12438147712009698,
          0.2458645663294175,
          0.0646021067295107,
          -0.032673199095558436,
          -0.09948028397863201,
          0.0005908096850007305,
          -0.023341756274725574,
          -0.12467552888884194,
          0.25803258220353364,
          0.24113302737531125,
          0.16423610652525739,
          -0.09610090359835535,
          0.1325628739918073,
          0.11414447970976625,
          0.06860681025087723,
          0.16558288090542833,
          0.07772515271270816,
          0.09841740942656702,
          0.08901204567178407,
          0.044897243308243365,
          -0.22236154343414075,
          0.02232282596672477,
          -0.05238197451296743
        ],
        [
          -0.16268713718392994,
          0.22399321887739448,
          0.2454489130287173,
          0.18504748595526882,
          0.031079615718887836,
          0.18441002902350093,
          -0.002868343401459543,
          0.027855230085842297,
          -0.1362493173241102,
          0.04515524078857531,
          0.008169744333090668,
          -0.15628419500486698,
          -0.004225227156543636,
          0.0015404526845395647,
          0.22904637122479665,
          0.11390469144459169,
          0.003944550115252225,
          0.03744711340317264,
          0.0018909107806834413,
          -0.01378842670398296,
          -0.13642754009141816,
          -0.019317796837205022,
          -0.09169296803660482,
          -0.13521823886403486,
          0.06221365990473889,
          0.04639473001356784,
          -0.20746263004829593,
          0.00821618690039422,
          0.12547597294914767,
          0.14133922925599524,
          0.13339427490014913,
          0.0031278017917557906,
          -0.0948494296064262,
          -0.13588516390113267,
          0.05956139876849463,
          0.04500750770487001,
          0.18221277500276498,
          0.1468429248814693,
          -0.015263971890493042,
          -0.15349500958136808,
          -0.0247118600001659,
          0.07503580216264741,
          -0.021567153674246765,
          -0.07693700966523245,
          0.04149732538917161,
          -0.06284771336050538,
          -0.07740789022324371,
          0.042746581879338066,
          -0.04271551546313569,
          0.04014593333640273,
          0.04646351365556283,
          -0.1310653538519407,
          -0.040848895686217856,
          0.19869839472938927,
          -0.1442150078299246,
          -0.25157873770950206,
          -0.22630859966380135,
          0.045113802606772585,
          0.0095730140784729,
          -0.01345858631659771,
          0.17275711053229892,
          -0.3382389504733018,
          0.05143146282901527,
          0.19390913399128495
        ],
        [
          -0.12680638106662942,
          -0.04499749387473435,
          -0.09282069895704109,
          -0.1067404896200447,
          -0.023877383442050298,
          0.19586705621163125,
          0.25227715017484126,
          -0.029289715666794728,
          0.2419676338147488,
          0.041404148485708135,
          0.2525485151022336,
          -0.01090955236881897,
          0.03493890544430284,
          0.047826259461050014,
          0.4159349990290324,
          0.11274027283000786,
          -0.07555624642688398,
          0.12938143264564403,
          -0.03954977076657487,
          -0.05935602309132161,
          0.14997513565997989,
          0.013299606527949578,
          0.05325409357587807,
          0.015860651051908013,
          0.055694122386077384,
          0.0774934674351951,
          -0.2340666168645275,
          0.09283264516728748,
          -0.1103510764341402,
          -0.16866759100445278,
          0.018960989783274484,
          0.03826275373267176,
          -0.07852204869572961,
          0.13309191696404496,
          -0.15958130255407946,
          -0.042572819390554184,
          -0.06718271339282507,
          0.01288525938847142,
          0.0517841419001363,
          -0.11060611872478154,
          0.09706618928839873,
          0.006705309619025153,
          -0.22420799839801128,
          -0.23899633971319584,
          0.0027354692226836674,
          0.01324767796034843,
          -0.004259913142867976,
          0.009623376177455496,
          0.03488168467846349,
          0.11773652652839678,
          -0.1338231508560944,
          -0.11785128539044493,
          -0.13116432220516183,
          0.03898336268721281,
          0.1795135145349823,
          -0.04219422378466857,
          -0.30283919977861024,
          -0.21453719915454933,
          -0.07556061976430851,
          -0.06598217811709173,
          -0.04914211947596549,
          0.03482753156148768,
          -0.014814365926154607,
          0.15234443731094177
        ],
        [
          -0.05166674338309138,
          -0.10430989173509195,
          0.0558917863544681,
          -0.19161248973125256,
          0.06537443583637022,
          0.031893561268453385,
          0.001388910918976893,
          0.19528220175734873,
          -0.07696933891036911,
          0.2886442309674599,
          -0.029820325589907257,
          -0.16241389375603232,
          0.002756344360581007,
          -0.13137048461503925,
          -0.09833957951249478,
          0.052372787008483156,
          0.09661410616205722,
          -0.0811407604269486,
          0.16283327214286697,
          0.14752162164691393,
          0.17682763320106576,
          0.10263595841134235,
          0.18565248423202496,
          -0.23613994721805323,
          -0.026368194109320033,
          -0.06979448263395732,
          0.0134221956097341,
          -0.056136800900900945,
          -0.026975761508062607,
          0.22995163633669463,
          -0.01565943083399234,
          0.07980572648371616,
          -0.03128101250690528,
          0.015776060408700884,
          -0.0005813032930575883,
          0.09585672163094641,
          0.1454051479271677,
          0.23815142637986822,
          0.05097395266218369,
          0.09472247958987937,
          -0.14671373102224944,
          -0.01226431007767138,
          0.14904360841640693,
          0.14922825943971224,
          0.02272769908277371,
          0.10172032628039025,
          0.07471470417651087,
          0.1486749874592274,
          0.024407847990842352,
          -0.04405164609855074,
          0.07462994099404764,
          -0.37810320565732564,
          0.047067142121376984,
          -0.4437577970239611,
          -0.21627277559051775,
          0.05531496332539194,
          0.0553701511296074,
          -0.14420590138532421,
          -0.09999580061138728,
          0.17085397883979989,
          -0.059935847031659745,
          0.30794012730084697,
          -0.01795494799807258,
          0.07007204358712803
        ],
        [
          0.17705839465799114,
          0.018774151670680736,
          -0.12667772256828394,
          -0.014418099028467572,
          -0.01571127799087724,
          -0.17319024152350945,
          -0.051929995446266995,
          -0.1002137406406795,
          0.1093953685356177,
          -0.030644634948925286,
          -0.05582861898014852,
          -0.01701514623355601,
          0.011320179881324813,
          0.07713975848168295,
          -0.13437333911099753,
          -0.1351807912952376,
          0.13729396939297944,
          -0.0570587902195321,
          -0.19187322167863866,
          0.0527144757701024,
          0.027730437407468896,
          -0.1980903161256008,
          0.027238958395409827,
          0.0898347303213883,
          0.03947049447361051,
          0.06942297957753664,
          -0.1764289423051351,
          0.03859674819214149,
          -0.05370560778228002,
          -0.06689252126806775,
          0.09372843112331217,
          0.15517108509537736,
          0.22223330477930278,
          0.1376737616347992,
          -0.012340224929194383,
          0.03736438179411773,
          0.09551367854542674,
          0.004059813800427622,
          0.012559383282888359,
          0.08934590674196627,
          -0.010212490552031921,
          -0.08680875833194392,
          -0.06257518663479478,
          0.06969366985443487,
          -0.004458235652940622,
          0.005622880521735008,
          0.0704854340789273,
          -0.04894971482138633,
          0.08366834881630268,
          0.048351994227632276,
          -0.16076175080782537,
          0.15193851711643397,
          -0.06296799681548361,
          -0.21082002918545478,
          -0.13515180209821523,
          -0.1280060522519911,
          -0.006797135015967365,
          -0.02770315679937472,
          -0.06661934311285511,
          0.07610379703678335,
          0.04753187103976991,
          0.018464457497928667,
          0.01819643193778153,
          0.05285945483748483
        ],
        [
          -0.26917785994566645,
          -0.03357373854368527,
          -0.2501195835805655,
          0.024264270908758684,
          -0.0026254916529128984,
          0.1539053753225942,
          0.14066677339705821,
          0.027470987775225726,
          -0.06287849406439619,
          0.05042458445184327,
          -0.07061458710333517,
          0.0020569713509919697,
          0.12356450597773319,
          -0.06048864196488544,
          0.09585019244382961,
          0.08318035018814328,
          -0.12871283313036233,
          0.11929825620659809,
          0.0795664180427791,
          0.03276917140860137,
          -0.09585150821477215,
          -0.11128154845467068,
          -0.07380401422629271,
          0.08441745608479594,
          -0.12680718242235023,
          0.03790769178921839,
          -0.15382609497790126,
          0.008866536601184662,
          0.011527106758529639,
          0.3119551550079126,
          -0.16273895611446088,
          0.18294265836246162,
          0.017343943283886113,
          0.05102076616513502,
          0.009189216529147804,
          0.049853026318791634,
          -0.0004638814898294263,
          0.1981509360233968,
          -0.0694077355806017,
          0.1311607095428825,
          -0.08035918242125767,
          0.030126843487605828,
          -0.12724543996157103,
          0.049366118069450016,
          0.19498069118905043,
          -0.006108298333772179,
          -0.02864196173909718,
          -0.13738051503716525,
          -0.022955499679459757,
          -0.1954608031493134,
          -0.0999703965717307,
          0.04921412182344242,
          0.18819134197251355,
          0.37986200355880906,
          -0.0748947407198895,
          0.19032761417075753,
          0.03685591600221609,
          0.007960343182772216,
          0.05536815855468364,
          0.008555593825074464,
          0.027879926237110535,
          -0.061715720793471214,
          -0.1690131231182456,
          -0.19661500767605652
        ],
        [
          0.07637822854723195,
          -0.034177187021826656,
          -0.07238202667465862,
          -0.0009272143595511921,
          0.10399318956576882,
          0.01602584407785998,
          -0.07791838229885452,
          0.15807566116165206,
          0.1886731832578149,
          0.06322595125576995,
          0.1323427449177053,
          0.15437555296330013,
          0.1444958297367648,
          0.07516517767712153,
          0.08318533545756601,
          0.05288770936197529,
          -0.13066609875575974,
          0.08105561547519581,
          -0.1682348042128725,
          -0.09859829737085873,
          0.17032198316399885,
          0.09787439960488081,
          0.18130540970299472,
          -0.0584787810834172,
          -0.13825313409099207,
          -0.027316733308356975,
          0.004960113356763073,
          0.006591407075604892,
          0.1407321214670996,
          -0.038425269893746325,
          0.038288186642498785,
          -0.12047986595914575,
          0.05780908580606981,
          0.004842583189561044,
          -0.09161639293563266,
          -0.03032239238180403,
          -0.0286642471002958,
          -0.026348145777728687,
          0.2279332262775025,
          -0.01842057088935137,
          -0.02536020976861935,
          -0.25950199558708725,
          -0.11431181817640457,
          -0.03145580194786834,
          -0.08718650864169933,
          0.18087513572279762,
          -0.01558807162342787,
          0.15571443836290563,
          0.013034866530351788,
          -0.003662308013769389,
          -0.01311874778077895,
          0.0049647363328715706,
          0.2118088316698363,
          -0.28972006016599144,
          -0.2706419542698971,
          -0.07652297557706478,
          -0.0063066380762577985,
          0.08568083907849681,
          0.06415203324229614,
          -0.05695358953777876,
          0.12943542425738777,
          0.13668045700306364,
          0.0244823344681955,
          0.107415086413762
        ],
        [
          0.041610794605891906,
          -0.06338284598751924,
          0.09140799606193098,
          0.015608269175607458,
          0.004940843661463573,
          0.18992310192041104,
          -0.29832472079913497,
          -0.1730585470490932,
          -0.14763428048103994,
          -0.03537642305226177,
          -0.02597456593558622,
          -0.18863975488723853,
          -0.12067630082483624,
          -0.10673785302333316,
          0.3265218130230318,
          0.23162639408454702,
          -0.033198870855518106,
          -0.024218662937920712,
          -0.1350114063039867,
          -0.2377474566917757,
          -0.012422033899187597,
          -0.11600349707834014,
          0.017616801088326053,
          -0.19515685877403274,
          -0.08181793441523896,
          0.05791162786272286,
          0.06507904465199033,
          0.054589142437397396,
          -0.15871286137675458,
          0.10471188936384287,
          -0.09575732192683616,
          0.08601069983047079,
          0.023898203184597618,
          -0.1698454346735294,
          -0.004748434485819502,
          0.05686636913548493,
          0.08167256443845314,
          -0.006279964796717013,
          0.22561887339012823,
          0.16081149050370183,
          -0.0026507006586615053,
          0.09583552132096368,
          0.24829110752829256,
          0.2549836950650388,
          -0.1545013687963893,
          -0.11394921037188445,
          0.19000163929278613,
          -0.12139641634825016,
          -0.16397891057523722,
          -0.053303238221695734,
          0.0589807679382435,
          -0.013847614657961752,
          -0.0823684573089444,
          -0.0821546263769394,
          -0.07382967213721674,
          -0.10485102708103355,
          0.2831802012669807,
          0.044778658657435466,
          0.12116516807083011,
          -0.0611014678235413,
          -0.017075867340052158,
          -0.0790493228225918,
          -0.331315340333257,
          -0.16682838076240977
        ],
        [
          -0.22913858149675878,
          -0.28974854643768577,
          -0.1644007570548972,
          0.14915695043401814,
          -0.005561071632382046,
          0.13302461097494334,
          0.0513542692726116,
          0.097216963580867,
          -0.11773163201328525,
          0.06613052296196147,
          0.093963918034508,
          -0.07655728453225598,
          0.0710881996675302,
          0.06337416917430334,
          -0.06534816893734705,
          -0.15192958623817987,
          -0.14705981276353125,
          0.004945475529852253,
          0.03941355068892425,
          -0.1093028195319896,
          0.0044654100255172345,
          0.0582090542281171,
          0.06453987280953247,
          0.16437862415790375,
          0.16163435908273788,
          -0.13011441936646326,
          0.19880189373717716,
          -0.09203922531637622,
          0.127509927096665,
          0.007783458856857709,
          -0.07154761520661913,
          -0.23150630394798996,
          -0.027958869429750472,
          -0.19440394178401751,
          0.1191410373757826,
          0.1840915978811716,
          -0.11435791556850312,
          0.025209280126076962,
          -0.08980648120967605,
          -0.0833899927967991,
          0.08905381807418614,
          -0.02244493645210575,
          0.2031454748418002,
          -0.06047295978048274,
          0.1172817173469548,
          0.012002331830675802,
          0.09590599452857713,
          -0.0692382308905203,
          -0.01588226686480749,
          -0.017317093282642814,
          -0.11786076797698306,
          0.07627800013429299,
          0.06251156564139852,
          0.05947908249424297,
          0.16715505323244895,
          0.157988248500115,
          -0.04980100838582019,
          0.0320632281566082,
          -0.07546508770361801,
          -0.005080381268077612,
          -0.08146786845321878,
          0.20479303903385637,
          0.041178689006955656,
          -0.039917562777855325
        ],
        [
          0.1476537520961164,
          -0.27135664093121065,
          -0.2551385319619779,
          0.0994084534628403,
          0.005953752233260271,
          0.031033330793924906,
          -0.165566809072317,
          -0.005707722746168657,
          0.2487976742694572,
          0.10088729391360599,
          0.01570825154817121,
          -0.05830623970318538,
          -0.05610287342549234,
          -0.2662488016986347,
          0.028936790853939496,
          0.10695051093409888,
          -0.19814293262675317,
          -0.08141181749182778,
          -0.1450488710606296,
          -0.12091262099123488,
          0.0007322812147507622,
          -0.26036162024442217,
          0.07938146770812886,
          0.09256851846037586,
          -0.030763353320364905,
          -0.3070359526103473,
          -0.12184008541850645,
          0.15345519747169564,
          -0.34860138977482935,
          -0.05320996282219575,
          -0.1490311880338926,
          0.09899510789861467,
          -0.08305469889366615,
          0.04648667004561186,
          0.07232530313878405,
          0.22968026807337025,
          -0.026867608658319858,
          0.048139741435079215,
          -0.18329520207244918,
          0.15167323339276642,
          -0.09518322933023841,
          -0.08492177226882872,
          -0.002810877364710985,
          -0.19477195721264395,
          0.024630952022065944,
          0.11406810265180442,
          0.033983019465974484,
          -0.19773002513394844,
          -0.017178630373485385,
          0.0918587715954681,
          -0.2356043767180117,
          -0.14494534048437932,
          0.10875456064163924,
          0.033443845863983655,
          0.05397106550253748,
          0.23300066240439446,
          0.04998273557814688,
          0.07797559129772337,
          0.32719170584103585,
          -0.02730891354082281,
          -0.10369440706796247,
          0.05189653863081355,
          0.04540919708436111,
          -0.06790879315219525
        ],
        [
          -0.13367800261000906,
          0.28754909229144154,
          0.04542381201331331,
          -0.10245622755821901,
          0.11829124518367841,
          -0.047306449637902884,
          -0.035737527634775924,
          0.0751669707168865,
          -0.16938499458913742,
          0.041779843273987545,
          0.24939132619162802,
          0.06238212927652157,
          -0.039937646260333234,
          -0.06741851280161562,
          -0.044452668386078316,
          -0.04927008633923795,
          -0.03862256733476885,
          0.10170172242581539,
          -0.21769289999275937,
          0.10264400139547013,
          -0.04452585359668472,
          0.03129563891160159,
          -0.16732793261833576,
          0.13484647560463556,
          0.1576929086854184,
          0.10580236220453804,
          -0.20190130176925666,
          0.08192559110956024,
          0.047239438099167363,
          -0.18510056655392193,
          -0.03556784609586726,
          0.03318208151045344,
          0.06279415839099348,
          0.021967635291372467,
          0.04074120596546181,
          0.17864287031669707,
          0.14385830842250744,
          -0.3623074254086548,
          -0.04461998885804065,
          -0.03660405961137717,
          -0.21976209727946772,
          0.03634142394232443,
          0.1376734342352732,
          -0.13592097340240802,
          0.03920837134618776,
          -0.11398972368129447,
          -0.07957174538314268,
          0.16303901276683888,
          -0.06583009860537489,
          0.05948763294082939,
          -0.24533799062675896,
          0.23707492811220396,
          0.062439263743993806,
          -0.032870713411945134,
          0.021628149706373594,
          -0.19897124783152056,
          0.15280414142820595,
          -0.02781741893197261,
          -0.01299475628544612,
          -0.07319792889670156,
          -0.06233902988526295,
          0.09136275025360205,
          0.031060058416560322,
          0.05872915628933658
        ],
        [
          -0.03956800055032331,
          0.07492348531072295,
          -0.02628601413983307,
          0.2950874201292956,
          -0.21027867594423758,
          0.16478983326176877,
          0.14734853148195984,
          -0.10636754342279398,
          0.2681631815108309,
          0.08115968650346167,
          0.10667072182451237,
          0.00668841063849716,
          -0.03638181430411397,
          -0.01795965684128445,
          0.04659686908027838,
          0.168838202845503,
          0.008519492078922188,
          -0.11580941829918741,
          0.07573914257680064,
          0.1321892701476015,
          0.06319731679675153,
          0.078769766909923,
          -0.04707591636135401,
          -0.12172680640159446,
          -0.12053341368524449,
          -0.2350499105952484,
          0.03514331208154584,
          0.010519346915906336,
          -0.063912133358227,
          -0.36757302987018176,
          -0.16649213900510448,
          0.10928293046740516,
          -0.07597067427622801,
          0.024305087703133246,
          -0.16478025459377008,
          0.15896419259833222,
          -0.006053848041488349,
          0.03813314866607029,
          0.27979799615141415,
          0.16639504715466585,
          -0.024225205325696386,
          -0.045445708162358434,
          -0.05585066955443124,
          0.040861908160924595,
          -0.005664439996731111,
          -0.06487055354656718,
          0.17390626253948574,
          -0.018888002912728085,
          0.30025252083550047,
          0.008996827486232708,
          0.22553641540917105,
          0.050795273908203126,
          0.13897929574174053,
          -0.06913278394955913,
          -0.12448947884526278,
          0.06580893241877407,
          0.11231449563696767,
          0.029196671844140536,
          -0.17031503603364825,
          -0.1761171938966059,
          -0.16958298645749714,
          -0.2515878120960984,
          0.0010968353485705836,
          0.10328935964418226
        ],
        [
          0.00013761520816087258,
          -0.279829842107769,
          -0.02286058709247049,
          -0.01642418576605306,
          0.26594245776817416,
          -0.1780463279678589,
          -0.04303380724103035,
          0.21616349221526968,
          0.05663693749675701,
          0.07653408683796747,
          0.019629865309895245,
          0.0405281697705448,
          0.09818735496032076,
          -0.1011202110426984,
          0.11078938283130789,
          -0.17211106003839782,
          0.04437426015525801,
          0.02197280237066194,
          -0.07587545294169439,
          0.0031832301888437063,
          -0.07090613957437275,
          -0.13368544175506145,
          -0.044066435533310404,
          -0.1379834283457247,
          0.04307396855101037,
          -0.139959135979969,
          0.08869927783035836,
          -0.14174168543888782,
          -0.07109589258107196,
          -0.07741442236157388,
          0.17232514246758387,
          0.05085912858699145,
          -0.026852131087867905,
          0.06871499638676672,
          -0.2629067884618939,
          -0.003666370480670897,
          0.2507900229459561,
          0.029707150226981734,
          0.010766968616769637,
          0.06983677695314712,
          0.11256401603377944,
          -0.24865834804893272,
          -0.20491302676894946,
          0.028156503958057598,
          -0.08712876881718552,
          0.1737059463411695,
          -0.03953456100136689,
          -0.24166418315255347,
          -0.1579943374313635,
          -0.3436156691437593,
          -0.026569257323723398,
          -0.015259019112252623,
          -0.05020911159413995,
          0.14218042658958333,
          0.14976127207932055,
          -0.021210167590916675,
          -0.2660215079026436,
          0.07718267218770285,
          0.07054661658967223,
          0.03860566760438326,
          0.12383311552292742,
          -0.14017922711930172,
          0.2542690916843396,
          -0.11791509800938009
        ],
        [
          0.09164000734235583,
          -0.21091846180166895,
          -0.1174932533774145,
          0.18954608084066701,
          -0.032677316922945426,
          0.10499032564159974,
          0.029618955982409306,
          -0.013580443203308748,
          0.16993981057843952,
          -0.029654947028117468,
          -0.22309500191130172,
          -0.10180792619802881,
          0.06775135810574617,
          0.04943863829531352,
          -0.19614843518008074,
          -0.09176160070263424,
          -0.07272281169162984,
          -0.04612879175342136,
          -0.1731247476609575,
          -0.07876432330707242,
          -0.09273659286620303,
          0.09644165747023992,
          0.10114016387378047,
          -0.01822618967888998,
          -0.049018350526269336,
          0.017490539004889175,
          -0.10218298529515034,
          -0.14335401027093012,
          -0.11964104663290535,
          -0.08039126395792161,
          -0.14543422497403388,
          0.019280133348825605,
          0.09089218067545922,
          -0.1990471589761726,
          0.0031253688222476605,
          -0.027491974408291948,
          0.04269223932537149,
          -0.0016173460129485077,
          -0.18169990999145386,
          -0.15779938078090175,
          0.003077374627057596,
          0.12821117748138536,
          -0.27677351112106413,
          0.04321582247519749,
          0.1480426171490823,
          -0.021372929104815527,
          0.06597814109182736,
          -0.08788363511222527,
          -0.018893371787905407,
          -0.20261841932842614,
          -0.29304291355235923,
          0.11557978560360889,
          -0.12332661790763122,
          -0.056940980625428815,
          -0.17330528165877415,
          -0.17642008961948222,
          -0.022487031798372973,
          -0.09120406433919027,
          0.04589846196190936,
          0.05651603812820687,
          0.04010003383541357,
          0.029820207673636544,
          0.1920193426606176,
          -0.13531139221871819
        ],
        [
          0.04715224731241003,
          0.128851964670614,
          0.14005127444062637,
          -0.1801644608865985,
          -0.02071681138630258,
          0.1958973091714609,
          0.09889803599942551,
          0.022832913566302505,
          -0.013711898633854747,
          0.010336716540164064,
          0.04375198809182985,
          -0.03325297659014418,
          0.0006273022254836082,
          0.00884474124076112,
          -0.09167564944938719,
          0.08774375038171509,
          0.36427826479337333,
          -0.21586700293865105,
          0.08395675648765108,
          -0.098924993160681,
          0.10049554283851893,
          0.049393709815525835,
          0.11956969389475347,
          0.16743041495216546,
          0.033806875677849395,
          0.1730544197417826,
          -0.28983066010245667,
          0.20722690134064783,
          0.06167523879899326,
          0.12368293322914498,
          -0.11251098961330483,
          -0.04708169806634008,
          0.014310732357783905,
          0.030646586127476522,
          0.01239200904111712,
          0.16894961869831213,
          -0.22522075501257238,
          0.13652997664086672,
          0.0010607715241741443,
          0.003982755654357445,
          -0.19657842796185815,
          0.01839445165396518,
          -0.26064655198397474,
          0.11738453756786119,
          -0.18819187102835927,
          0.038469302476483454,
          0.007337795771740132,
          0.16063866056256404,
          -0.021329639303315905,
          -0.09464288435831393,
          -0.038481286319994056,
          0.17069474464306275,
          0.06527959921279021,
          -0.04899168764827086,
          0.013075160128727007,
          -0.18480814324143277,
          0.05476299215840691,
          -0.2571748451274759,
          0.09707303158721672,
          0.026859469737552127,
          0.2701279820161476,
          -0.1045989080408156,
          0.012171095533812338,
          0.2830383182251055
        ],
        [
          0.1494069421157314,
          -0.08742271265362526,
          0.023599734973371336,
          0.00024991955188590414,
          0.034608221583807074,
          -0.08733505449810372,
          -0.010772968542730415,
          -0.20113849986117494,
          0.016875828231499853,
          0.05689102734246309,
          -0.03092411514927628,
          -0.20415766575877928,
          0.12102494998274374,
          0.04475676235843817,
          -0.09228246716017564,
          -0.03506868089508715,
          -0.18915967438819725,
          -0.1283189209166509,
          -0.06687729537722545,
          0.1535526015350189,
          -0.08075365325752452,
          0.08007294524172551,
          -0.06728396297557844,
          0.02538285811856025,
          -0.01750783250491284,
          0.10946017053586518,
          -0.06876939721884746,
          -0.19666435730605003,
          -0.17259506595608956,
          -0.07314830945102001,
          -0.1558723193113008,
          0.05185358324736587,
          -0.05859785947767764,
          0.29660535783649866,
          -0.21891911166165262,
          0.025642494288937112,
          -0.14416197827390043,
          -0.06139052145149667,
          0.017807048405094023,
          -0.2904044672701936,
          0.029603264598503435,
          0.22359087950319723,
          -0.056369465540230645,
          0.03276767505306449,
          0.12596829429190318,
          -0.020908878157636836,
          -0.07302743585078424,
          -0.28446705046521903,
          0.08012383992437166,
          -0.016977948154069205,
          -0.12655456113630462,
          0.012332724837436164,
          -0.07400039870230676,
          -0.06637280019610226,
          0.07578639451358853,
          -0.16729780141548056,
          0.12582965659075157,
          -0.1821870653579173,
          -0.08869101850525683,
          0.24019863192379065,
          0.13584924530270404,
          0.012093630994447924,
          -0.11784165380138349,
          -0.0657388704510617
        ],
        [
          0.006874172537335835,
          0.012417190734076555,
          0.001566294975602373,
          0.003801959165454149,
          -0.03275802407047227,
          -0.17103331939108957,
          -0.07058684054844899,
          0.11020322696197113,
          -0.17120743954887768,
          -0.03414280761675317,
          -0.11565142142492542,
          0.01544975327559263,
          -0.05498753706726489,
          0.19074142335219732,
          0.05910017388345588,
          -0.1631361545440538,
          0.08129808052106943,
          -0.09360312193926752,
          -0.07172364666578972,
          0.04480633639088592,
          -0.07354935650792692,
          0.11410862461191387,
          -0.09433798548701432,
          -0.06964047193547783,
          -0.08672780314399789,
          -0.07266874862039183,
          0.14515674974681322,
          0.09223741053165045,
          0.21118576740620265,
          0.2788324080051759,
          -0.1272870488371039,
          0.004537955560116508,
          -0.1417679196135933,
          -0.10513089451881574,
          -0.07289857476197015,
          -0.13078141325662668,
          -0.12165423730219453,
          -0.017931685748483604,
          -0.15362140758237272,
          0.10741224529328351,
          -0.1070068561255587,
          0.37045604167054563,
          -0.053039404961217416,
          0.008554853896111988,
          -0.158220148751101,
          0.20119982350238658,
          0.13652055509343197,
          0.03875984341684933,
          -0.16928407266573745,
          0.030780829473359094,
          -0.13116251531991024,
          0.17840659671129477,
          0.1096585572929738,
          0.023243630283801022,
          -0.30437151677414886,
          -0.11748768500555723,
          0.08384019662140027,
          0.17139374401636495,
          0.13024234082455693,
          -0.19863849365280067,
          0.04646113287692074,
          0.11631744074760253,
          -0.2130111719952803,
          -0.002274539960808827
        ],
        [
          0.044156885031513896,
          -0.027183081297595054,
          -0.22618424920852914,
          -0.03922716109667924,
          -0.039034523064207745,
          -0.0076658695178425384,
          -0.06709533965287345,
          -0.05538435714752564,
          -0.0031941467328514997,
          0.05571752759335789,
          -0.043291345083248986,
          -0.04932428927200826,
          0.006775911692296796,
          -0.23690232770461403,
          0.07155343536947786,
          0.01053566712393943,
          0.030494227027502832,
          0.13962737179082818,
          -0.22738380158656976,
          -0.24485549483708638,
          0.020503920097367852,
          0.018561157054232485,
          0.0527162069150269,
          -0.046005298283456016,
          0.09432279868115921,
          0.1630673314822111,
          0.08040375313528662,
          -0.02409037694224444,
          -0.2621376977110285,
          0.09397690609827543,
          0.15029305954175504,
          0.08264864902278937,
          -0.08967304592857524,
          0.07440603789094313,
          0.14103943954379028,
          0.21792983335021504,
          -0.10264860452671569,
          -0.012225862985412695,
          0.1274532246114909,
          0.0428334645158151,
          -0.11615935712040124,
          0.060200761185384206,
          0.08348693060186674,
          0.029088562754404208,
          0.026700542325358987,
          -0.048462331451809004,
          0.190687205506092,
          -0.1041313087373942,
          -0.07412977349754829,
          0.01433733283529951,
          0.12703272911941094,
          -0.19842144227967562,
          -0.16444480236240686,
          -0.24565296318882576,
          0.01975250849137346,
          -0.13545380045064093,
          -0.04963274009835593,
          0.0964153067850735,
          -0.0789026376546883,
          0.030431425500014146,
          -0.025990619102536434,
          0.08943150937863208,
          0.04935800918132236,
          -0.08192100728036367
        ],
        [
          -0.014763225098629089,
          0.1337254288665258,
          0.053302676410749594,
          -0.1746202549178962,
          0.09209736278217849,
          -0.1347444808006035,
          0.1861138943075126,
          0.13630002170970718,
          0.03765894744508857,
          0.03679114282802706,
          -0.005147969061006639,
          0.0877710307307701,
          -0.03455111338139219,
          0.029446233829986734,
          0.12162746946767386,
          -0.06996420213725925,
          -0.06198114831191586,
          -0.14631816942390663,
          -0.1302163685844959,
          -0.22831941475548298,
          0.10635076360681583,
          0.22672191309681103,
          0.18349232085046302,
          -0.20006128231810058,
          0.09847811771608621,
          0.19377091411287614,
          -0.054682182380773464,
          0.012695452272137505,
          -0.24693400496256449,
          0.046486086056289684,
          -0.12768669528908946,
          0.03376059139342101,
          -0.19222423695830324,
          0.07986671673808775,
          0.13971160954553935,
          -0.0922171528346787,
          -0.1395347949938322,
          -0.25691870484266366,
          -0.020696180161753147,
          -0.064430802644863,
          -0.19047935076446745,
          0.07427357707962537,
          -0.05357964338283654,
          -0.13057820177058588,
          -0.06631937399744214,
          0.1491029821485316,
          0.07890973986353063,
          -0.01523919797243839,
          0.07844551010659245,
          -0.1393234141204534,
          0.0045619187562624085,
          0.03185327128053521,
          -0.05876996957802676,
          0.05531428857656223,
          -0.09655392946602878,
          0.06368751728863876,
          0.07960714281263516,
          -0.356010364586466,
          0.16874683189157297,
          -0.3808841657407115,
          -0.06685670735152034,
          0.14642776207166652,
          -0.0311777162044571,
          -0.17768462968279738
        ],
        [
          -0.13671713271458383,
          0.12836321829007746,
          -0.24018806631857978,
          0.14112388762025216,
          -0.0068877623802861675,
          -0.1490494163053042,
          -0.07288938403783639,
          -0.12715304263770516,
          0.10827815010731608,
          0.09155347622035478,
          -0.21489514173450583,
          -0.05044901481491676,
          -0.10789820779303463,
          0.16168874605742128,
          -0.16876238976580263,
          0.20052863808562674,
          -0.004161842439617196,
          -0.14524180079751095,
          -0.08465927300115973,
          -0.10020235509605632,
          -0.15932730025193825,
          0.011853357466296958,
          -0.15348944383648042,
          -0.2725457760922736,
          -0.047459558856021634,
          -0.22535702455223533,
          -0.09402010850844005,
          -0.11363786107541948,
          -0.10890200900322677,
          0.2501203876987692,
          0.007051445896196345,
          0.03067137612441652,
          -0.22204978704278683,
          -0.08174539170461524,
          0.026912828742688997,
          -0.1280661141141258,
          0.11350785543974817,
          -0.15033707323762877,
          -0.03579576698314695,
          -0.07325645499694483,
          0.020540082422739497,
          -0.08006125898192824,
          -0.03386170338386717,
          -0.029516261472248194,
          -0.09179846967391263,
          0.060636733562139083,
          0.02979854685467816,
          -0.011076743156645913,
          -0.053807291682744764,
          0.09956800381499963,
          -0.02947928047677267,
          -0.03833716097824215,
          0.013086253736015751,
          0.21207333537135634,
          -0.1675445260026505,
          0.09623211163191933,
          -0.23664639515476313,
          0.027159144778577993,
          0.19688535345109134,
          0.06108356555841339,
          0.0213281348174741,
          -0.07005618360038444,
          0.00388090006106928,
          -0.031507851925419536
        ],
        [
          -0.10756261496842798,
          -0.036011724619743925,
          0.024017770901210083,
          -0.09583738627020005,
          -0.10582842238638004,
          -0.17043902325441987,
          0.04072501036277316,
          0.06316302671714548,
          0.02667171013897443,
          0.1091096353931211,
          0.0005973196086230495,
          0.046124667339475546,
          0.030818474125832135,
          -0.011406858870633977,
          -0.07081155255552934,
          0.27660832392221246,
          -0.05781572281163295,
          -0.08224216864203442,
          0.0483133690809932,
          0.029610180177613642,
          -0.1911678829649957,
          0.13800771159060973,
          -0.010597291835601756,
          -0.13611980541489646,
          0.14607107983857057,
          0.07716095511283712,
          -0.15623722424840608,
          0.22097283201014614,
          0.0764074420635359,
          -0.005913813586093728,
          0.19286884898895756,
          0.006727061916924761,
          -0.003344126753544543,
          -0.09632120733370489,
          0.07369815290369724,
          0.057695691507395966,
          0.0024185047903853016,
          -0.10351669226616003,
          0.01619833085282247,
          -0.009059896821231558,
          -0.1675352848527845,
          -0.18365201935348083,
          0.0662928335974813,
          -0.327387262282302,
          0.021957664737527825,
          -0.0806851806017107,
          0.1573702051247409,
          -0.0603634204307056,
          0.07532827833291662,
          -0.048162854600984004,
          0.011249317489596192,
          0.07342768368960607,
          -0.05878204420254978,
          0.1226133287985219,
          -0.12148252032745907,
          0.03814543278492455,
          0.11010041448495957,
          0.08418315254792315,
          0.229635173096694,
          -0.09582316134898688,
          -0.17130127440899628,
          -0.13223710308388775,
          0.06088040896961494,
          0.05297791971725727
        ],
        [
          0.016815446221309364,
          -0.1376678798580188,
          0.0971273487422585,
          -0.1488068263359656,
          0.15075216217625972,
          0.36388955430115516,
          0.051253020941039396,
          0.07915691570428647,
          -0.06135300145893382,
          -0.22150727093850214,
          -0.06498903687548414,
          -0.1363037380922254,
          -0.17596671065991876,
          0.21464728876351283,
          0.037390640481884556,
          0.046440565722925105,
          -0.034675591561979906,
          -0.022898104284200877,
          0.12248455537785576,
          0.004569927983462066,
          0.07861612997247974,
          -0.02507228175645279,
          -0.04223029632380999,
          -0.1749665899881922,
          -0.2443371358967656,
          -0.030203509536969406,
          0.004071443164691412,
          -0.1514509489438289,
          -0.0030127670865126677,
          0.014817924570314469,
          -0.2630899786844391,
          -0.10308951372393355,
          0.04832743673678507,
          0.057714506328331715,
          -0.14566252041918895,
          0.021333986114515025,
          0.13034224554652968,
          0.11265808308763305,
          -0.010392677773688686,
          -0.05848992617191543,
          -0.0822676673839704,
          0.0646292208925574,
          0.03102609614858583,
          0.08031095307127725,
          0.022694438828032834,
          0.1189656237484027,
          0.015295195219179337,
          0.09817067133660305,
          0.11314174343341944,
          -0.09918228303187047,
          -0.22155620185773703,
          0.21292319586707542,
          0.036118850104681556,
          -0.20331350260167214,
          -0.08922723816444268,
          0.09436334914804717,
          -0.03024479138700815,
          -0.063763725776302,
          0.1828454418184628,
          -0.13085608283288647,
          -0.09689031846829953,
          0.03145593944843438,
          0.061868959653043835,
          0.0647323603723641
        ],
        [
          0.12173801817005807,
          0.03264818672572055,
          0.07032775434775132,
          -0.004178921283310047,
          0.005314511774534381,
          0.11085108987042919,
          0.026783706524647025,
          0.0880584862235543,
          0.07977357642270379,
          0.004198663876736779,
          -0.11810683647273654,
          0.008286254861143792,
          -0.010729419743053838,
          0.04400326077035511,
          0.2612375853373346,
          -0.034298384810470324,
          0.04576327693516831,
          0.14602434143311568,
          0.023665493632531072,
          0.2983262599512305,
          -0.05752529827091038,
          0.09923404811401332,
          -0.03901874508560651,
          0.040595689594787786,
          0.022904957788841187,
          0.13054148166571578,
          0.06535045600403738,
          0.22334557634094096,
          -0.014846792482687709,
          -0.04555519174656261,
          0.40020539492414575,
          0.06573730299992388,
          -0.0814579994067877,
          -0.09060299478524199,
          -0.13375797885893986,
          0.146621402282583,
          -0.007972864902628964,
          0.016427391605576706,
          -0.011679649353488548,
          0.10713423425045954,
          -0.11395190367000449,
          -0.12465237833285578,
          0.07526260294529726,
          0.08623218745265546,
          0.05403659620671125,
          -0.1156798566566324,
          0.0856860339955583,
          -0.04465739342288472,
          -0.07386893715494113,
          -0.12033395507831231,
          0.2092016780979399,
          0.07762670958781992,
          0.11396725848141205,
          0.17948779519582297,
          0.45397348960994816,
          -0.15143007102148887,
          -0.0918787232676988,
          -0.0653091408016582,
          -0.11869097611499423,
          -0.11105229873852145,
          -0.037219471285110724,
          -0.15861128963139878,
          0.03300279997914111,
          0.04914694809177611
        ],
        [
          0.06651968309921388,
          0.08550000467149459,
          0.09897153022598697,
          -0.03820145490174622,
          0.2709343099357895,
          0.04468014053367526,
          -0.23416930352449644,
          -0.12814544573216152,
          -0.21722668663632466,
          0.008772979862596687,
          -0.01622884096425852,
          -0.05317862893380378,
          0.24592029152612363,
          0.08087358943760842,
          0.09026876903748376,
          -0.11223958725441598,
          -0.0890226348007646,
          0.0022546542784236145,
          0.031687436249588995,
          -0.23065707047340694,
          -0.03134855328196916,
          0.017743749436047968,
          -0.01817576126004935,
          -0.09257730730404296,
          -0.06308126336727,
          0.0006029327637550748,
          0.024708571620693384,
          0.09157559614310856,
          0.13089383819800374,
          -0.037261248404397034,
          -0.058065382692491486,
          0.05172746620741931,
          0.07969784496105921,
          -0.05900273142710507,
          0.12211315744596866,
          0.1432553143701422,
          0.17383666842488307,
          0.24129628300987963,
          -0.09622205526548161,
          0.0004850199166710116,
          0.01256016319795574,
          0.02026149696558684,
          -0.07503989862417931,
          -0.1726519190384643,
          0.011221774465760377,
          -0.10955641879728822,
          0.019044260958395173,
          -0.10428381848482561,
          -0.13134752250903503,
          0.040604329320318516,
          0.03731258095147404,
          0.06281968951116,
          0.28352210911412834,
          0.04436660809206149,
          0.051300842651219154,
          -0.12247733182683873,
          -0.16517550055119248,
          0.24401701872662107,
          -0.12821108200196046,
          -0.12999494662818908,
          0.023600307030271453,
          0.0034318820209723257,
          -0.11759385998805541,
          -0.03434412422859751
        ],
        [
          0.1555802521028762,
          -0.10619457372203887,
          -0.1796765975066299,
          0.10893873184438849,
          0.06042093766783098,
          -0.08631654465192935,
          -0.19796210054491412,
          -0.09459294000580078,
          -0.005205847411223756,
          0.147271480960633,
          -0.129598502037691,
          -0.010425446251666245,
          0.08523292497604594,
          -0.3001710982946177,
          0.13143206346001537,
          -0.14373592197557433,
          0.04185854689839744,
          0.03588259861883241,
          0.13561706106764337,
          0.06050978914253252,
          -0.2985816693007821,
          -0.09938091536355954,
          0.022105070622734046,
          -0.022950375673292518,
          0.060170801694298344,
          0.1037018444702172,
          0.0797683963503637,
          -0.040784779176465516,
          -0.22897440952613182,
          -0.05710323134502354,
          0.05107674158715426,
          -0.1386338004883184,
          0.08015130190821114,
          0.1124258348235141,
          0.019232519392904122,
          -0.38426433495255763,
          -0.1636592831330751,
          0.2239677893475583,
          -0.06417879464585136,
          -0.24193057253662797,
          0.15391669855295242,
          -0.004534991108629803,
          0.13253623664894637,
          0.034627063934235223,
          0.05368351261750587,
          0.0421287625223056,
          0.08660230222878273,
          0.2852642398898263,
          0.11759465997527851,
          -0.19479906082470166,
          0.049128247654798195,
          0.1357113029501104,
          0.14139790623963974,
          -0.06480352338547136,
          0.1541791659861349,
          0.11122309024562872,
          0.3241653094678341,
          -0.09896904849286842,
          -0.06013033447295634,
          -0.037342062880192775,
          -0.06467952551231182,
          -0.11106796882414867,
          -0.347218175988665,
          -0.05071351206554028
        ],
        [
          0.030623417386479626,
          -0.059795330228647074,
          0.24471320355269488,
          -0.004954270846978723,
          0.1626854043195431,
          0.010188533073947119,
          0.09805030520592117,
          0.036692423266788975,
          0.15736071054912562,
          -0.0055012858899582,
          0.06533251681159162,
          0.045616007778773046,
          -0.03943454367304389,
          0.048808412275126375,
          0.28082159087831865,
          -0.05567448095001521,
          0.06140998919286992,
          0.13832677857182524,
          0.13886020548244285,
          0.0002220285449225332,
          -0.3012027251563291,
          0.05006519137779174,
          -0.30188065220882637,
          0.13905049066212813,
          0.022921830323278974,
          0.11107857066732169,
          -0.12964574797395678,
          -0.2063668050325328,
          0.02340849112042847,
          -3.743500615642431e-05,
          -0.08860727572102088,
          -0.0019801496776899775,
          0.3383923935344871,
          0.09908391345798585,
          0.13101164623308686,
          0.10105168735691474,
          0.1733806763570719,
          -0.020158942814882244,
          -0.2608187063453669,
          -0.049118739875284645,
          0.1014987490172538,
          -0.11587539417893088,
          -0.03678155229202081,
          -0.08828849532525515,
          0.18291853551547022,
          0.08896880006353988,
          0.08356433047069782,
          0.05661236697654455,
          0.00018830584760660526,
          0.015785550579324206,
          -0.15426242624373793,
          -0.27724237197898216,
          0.011031694275791079,
          0.03747890430848047,
          0.09891530700576827,
          0.1768502373750562,
          0.18134570420823823,
          -0.11880285864481394,
          -0.05200462405220212,
          0.04554124551400929,
          0.3216212254331555,
          0.18610967855982508,
          0.13216869555181568,
          -0.07952975956638607
        ],
        [
          -0.11409659209470535,
          0.09855826459816629,
          -0.13756723726792375,
          -0.030782636247883476,
          -0.014334576611234339,
          0.19433011740390335,
          -0.04484933297709498,
          -0.30489287905229046,
          0.058628083379126394,
          -0.08987828276826874,
          0.005357148376279035,
          -0.01197853555612411,
          -0.03526862058663074,
          0.09822229122393612,
          -0.19158210496970982,
          -0.07233477359336647,
          0.08546252657443366,
          -0.08314984687827061,
          -0.20115546247581467,
          0.08356941790709198,
          0.14040752664229558,
          -0.009006848778696284,
          -0.251983965721705,
          0.07436191713275044,
          -0.207485985177461,
          0.03325336523062564,
          -0.11701022064761417,
          -0.14689139697990988,
          -0.057950378483940725,
          -0.022860632194886356,
          -0.08656814433930951,
          0.07209434882481211,
          -0.057556808034228246,
          0.12252931426423569,
          0.03237091037455639,
          -0.08832961967550813,
          -0.11156101495249147,
          -0.2059369902410671,
          0.033770930702382025,
          -0.05193123026597478,
          -0.29669135264293833,
          -0.06687547235329747,
          -0.11476220759782381,
          0.19695982835360018,
          -0.2139053446591145,
          -0.18015933663696013,
          0.13876221853515042,
          0.16446160563446163,
          -0.09312286734070518,
          -0.08383367955040813,
          0.07624142869665614,
          -0.29086681267269476,
          -0.23394347827900394,
          -0.035142850241118295,
          0.17830760514485983,
          -0.059330384270094065,
          0.00751881642277043,
          0.14143224279901184,
          0.2611495542268262,
          -0.0766491422909185,
          -0.0021171726641376616,
          0.22776775483918105,
          -0.19162438249912214,
          0.12048978554562109
        ],
        [
          -0.11314701519074055,
          0.011950563783312518,
          -0.04362619628100337,
          -0.12109308698451786,
          -0.11990756484319792,
          0.034223309066020995,
          0.1328824810379747,
          -0.016192473387952638,
          0.017149548250650282,
          0.09258700726176561,
          -0.11796110950228755,
          0.08676310032037785,
          0.10593126383923628,
          0.3224963480796123,
          -0.04649654290354,
          -0.05039505715249553,
          0.09357696508363424,
          0.10864510592518725,
          -0.06561403072620858,
          -0.050761304322874436,
          0.07809957885317638,
          -0.10395477658177091,
          -0.04780463548571617,
          0.015237546173276655,
          0.1268346220272687,
          -0.06904676139088635,
          -0.23142018806020156,
          -0.24047034469021908,
          -0.15090514238240443,
          -0.1763409187700814,
          -0.008378288875192711,
          -0.13855198772404334,
          -0.09207096908642066,
          -0.0860778975804505,
          -0.05952918712313185,
          0.16650729177650594,
          0.07825255234100666,
          0.005048153570018533,
          -0.0552593817314462,
          -0.04284486933141338,
          0.03496341558226259,
          0.04301814224093248,
          -0.11132231660090018,
          0.006141836198372707,
          -0.25583420328473944,
          0.039228547258655676,
          0.09055021225281233,
          -0.032359237515638385,
          0.2199749288338862,
          -0.10752593389283405,
          0.025339826492785315,
          0.00021531948855102578,
          -0.01606490900745189,
          -0.014808821851193104,
          0.02713025892916621,
          0.10475551823031096,
          0.17754651147452216,
          -0.017471322590487576,
          0.10483819027911045,
          -0.08239421662874191,
          0.0868449671235496,
          -0.08656907012438468,
          0.14754555609138095,
          0.2948719051576458
        ],
        [
          -0.017431463417011555,
          -0.26075135631268803,
          -0.06959561071548974,
          0.15566169495608212,
          0.08977196359638533,
          0.037050944968334755,
          0.13829701568533623,
          0.07032990702003261,
          0.1422993613249328,
          0.12680317169410385,
          0.21081202727895146,
          0.040350257350806995,
          0.10971196144597009,
          -0.038188615125743466,
          -0.05852793679675722,
          0.20308492800418307,
          0.07604876614453994,
          0.09641314156224101,
          0.02656381088384777,
          -0.06631537913032835,
          0.0013798621672498944,
          0.18944095637496444,
          0.08172578232063359,
          -0.23356921429958163,
          -0.0030522667208352917,
          0.2691384046104254,
          -0.030157146531136717,
          -0.21703647691005817,
          0.22418355448963864,
          0.09298945899844477,
          -0.02186105046450375,
          -0.04458090815520071,
          0.14060655719471676,
          -0.06945984035717993,
          0.1687141433720673,
          0.09430938844724104,
          0.029194455664157865,
          0.07028934353308244,
          0.014201869198041745,
          0.14063437777672827,
          -0.09848297762458325,
          -0.19670157181790868,
          0.08539933326672895,
          0.10048537118546454,
          0.05640144198999959,
          0.042734848763369214,
          -0.034898063351184956,
          0.09345862153855873,
          -0.010804262242303485,
          -0.058055308069923865,
          -0.025090860601645525,
          0.24315684951326924,
          -0.2173945679490104,
          0.0750539143660696,
          -0.22955699714755914,
          -0.020981472266744655,
          -0.06896192665043785,
          -0.25177221384911985,
          0.04560711148020659,
          -0.05506739167277264,
          -0.24515077157314552,
          0.13590896103653574,
          0.15094169504072516,
          0.1672415417485128
        ],
        [
          0.044092419288838225,
          0.00048759711965789166,
          0.17608148028949266,
          0.20677736343426922,
          0.15059388527937378,
          -0.12337647412158732,
          0.025227695596940658,
          0.06839656923639235,
          -0.22436683204785005,
          0.059160744794846995,
          0.3122457112525782,
          0.09199547231314102,
          0.2034658123838166,
          0.022781450186211367,
          0.0009048178402781846,
          0.04847498980090338,
          -0.10077658735132193,
          -0.1246787835439298,
          0.15159947672223675,
          0.17147839971906026,
          -0.1023122446881932,
          0.11280546295342625,
          -0.019326494081790966,
          0.05599921487061967,
          0.0571225835866648,
          0.11133938101339506,
          0.00840200685369286,
          0.17214785638750585,
          0.04327214891191766,
          0.11383432189776738,
          -0.103093887090931,
          0.26809287749367067,
          0.0529919476224128,
          0.10374372860851926,
          -0.20154267938266507,
          -0.1113855859923162,
          0.16086585831211409,
          0.034922993318606356,
          -0.24608692972733176,
          0.11802924398241849,
          -0.07518271985438331,
          0.22150385056038602,
          -0.018628965945456776,
          0.01594740592035177,
          0.1594387726840372,
          -0.08812340049669799,
          -0.1189746512031619,
          -0.0273731904283707,
          0.1132394579878059,
          -0.15805774160420508,
          -0.21492005525344302,
          0.1377176809105447,
          -0.0720392003872634,
          -0.05117555231108645,
          -0.23062680124507304,
          -0.08848061447424088,
          0.02632407531160941,
          0.1298564129589362,
          -0.06262900751188172,
          0.20978971309842287,
          -0.07449067322646799,
          -0.08026960156614467,
          0.21469941681687438,
          0.028079369238334984
        ],
        [
          -0.059114548616062926,
          -0.013035727652198743,
          0.173806815711984,
          0.18538013793232855,
          -0.09570762765487154,
          -0.0026108402297464806,
          0.025332327155546668,
          -0.11556914410813754,
          -0.004506259893157183,
          0.02214480455900697,
          0.15733888385399208,
          0.15010843732295717,
          -0.0321882893954509,
          -0.02631987701039303,
          0.11043741987309696,
          -0.06516550858296295,
          0.0896401055509259,
          0.016994438265550183,
          -0.11673525326217374,
          -0.11926773415242513,
          0.19680825410675948,
          -0.016464572390854297,
          0.23608929038162987,
          -0.05521204306966087,
          0.0523657407765013,
          0.33952134867084005,
          -0.1070070479493997,
          -0.2384820627694904,
          0.1750480507858661,
          -0.10561573544632394,
          0.009824358581187104,
          -0.06095642849226208,
          0.06568424307515312,
          -0.10543217063917504,
          0.01897986035624529,
          0.061338411240516186,
          -0.11985691421453058,
          -0.07837312983908856,
          -0.0039765351489060245,
          -0.13803239404096812,
          -0.01607913588425499,
          0.012430149985801053,
          -0.046516981931148664,
          -0.028600269663714248,
          -0.002418660430508351,
          -0.06298687809000088,
          0.08991068708699458,
          0.19373940933231842,
          -0.05387397434169425,
          0.06842495713976654,
          -0.029753599055257582,
          0.056331160319744236,
          0.19497888307683953,
          0.0631960012716769,
          -0.20091639108223625,
          0.06424060398832848,
          0.15641581197070473,
          -0.020419546521333376,
          0.14688757384615136,
          -0.085470120509968,
          -0.18030080199938703,
          0.032135164696002694,
          -0.20630257288032702,
          -0.01835366842980276
        ],
        [
          0.17287115754572036,
          -0.23803515713760798,
          -0.1493448312987393,
          -0.12763935486353392,
          0.0058356366671126194,
          -0.053651934399573054,
          0.19190373314385684,
          0.1349716825631799,
          0.06783904056517122,
          0.05026473438488212,
          0.08926148114021164,
          -0.10082868397298221,
          0.13295697177811241,
          -0.1403830635959993,
          0.12366953272077254,
          0.15217147872919057,
          0.03226947169642927,
          -0.014699997639475635,
          0.045678333047238714,
          -0.35548168087121995,
          0.07976010577287716,
          -0.027149281005050787,
          -0.008719553171448253,
          0.10243279431499835,
          -0.001666112809897465,
          -0.13898571263605036,
          -0.010380872501610358,
          0.0017256485874920793,
          0.030784404985028407,
          0.04517689196781689,
          0.1454655489736015,
          -0.11512701041597748,
          0.025179161522477206,
          0.19338968884977215,
          -0.20586698414964458,
          0.013134309414148138,
          -0.0668934886756187,
          -0.036573532668661646,
          -0.10623383391508913,
          -0.014664621845361207,
          0.23402804347877332,
          -0.1314880151149027,
          -0.14874150631885363,
          -0.16885348053784047,
          0.22504943134288186,
          -0.009843722462334602,
          0.004443961457719387,
          -0.04805349635682742,
          -0.1058695603059951,
          -0.021043944854283753,
          0.2949589871318761,
          0.21527939315715794,
          -0.10501556891506277,
          0.07918751040179203,
          -0.09741709744896807,
          -0.2210501411217043,
          0.153683674093873,
          0.1560805012274079,
          0.17247311761711523,
          -0.0566902724726475,
          -0.010653363326742724,
          0.11731078242975852,
          0.08460085330608684,
          -0.0326831769067474
        ],
        [
          -0.19622307096261116,
          0.012970957765675849,
          0.13041500189820648,
          -0.14776518731032584,
          0.08021776263653714,
          0.05273130059828158,
          0.0970696433353742,
          0.11145929329229172,
          -0.08017894638032422,
          -0.19657932930008717,
          -0.06148372860551148,
          0.11030604479164409,
          -0.0640484329272702,
          -0.08813534382294416,
          -0.22380550582060288,
          0.23102389680900803,
          0.10053330637764535,
          0.10742371203992508,
          0.11894122004096985,
          0.07276915375652855,
          -0.023493615902499848,
          -0.021694553627191086,
          -0.03637073225068607,
          0.34981703717353196,
          0.07113447871053778,
          -0.046864392401400286,
          0.0644505895145549,
          -0.1222219436586958,
          0.1952988043170029,
          -0.0819197961348975,
          0.08380355395741579,
          0.14088752274357666,
          0.05066876069142687,
          0.016682435551715134,
          0.0017742981679040337,
          -0.00847317915768103,
          -0.07058428725875288,
          -0.055865241152923094,
          0.1928400579544216,
          -0.0010099441988915716,
          -0.09930728976923997,
          -0.07163645634252341,
          0.14238531517468261,
          0.08081469864391028,
          0.07303708806260573,
          -0.02410773258632472,
          0.07150098846937636,
          -0.0675129479988715,
          -0.03090811992037595,
          0.125274478264361,
          0.10770329864002713,
          -0.11714009951961465,
          -0.1034300375344977,
          0.01416357955316134,
          0.2500067997440858,
          -0.23339229332089576,
          0.04147177443848447,
          -0.1787760135884687,
          -0.07021897645584575,
          -0.03869806456538682,
          -0.05411275909012878,
          -0.06573576173197161,
          0.011180232091623112,
          -0.04920318984501558
        ],
        [
          -0.20241796359546085,
          0.09798866848625505,
          0.09539211326813178,
          0.12140673239984101,
          -0.19886537358579737,
          0.04856852966079239,
          0.07997298160156131,
          -0.1213542079345079,
          0.0020402970245888383,
          -0.029246918536775152,
          0.2334463696307289,
          0.23606884212909895,
          -0.2044254989452619,
          0.30886421987925156,
          -0.11977877313751285,
          0.11837867757944413,
          0.08768728786575401,
          -0.126798037011436,
          0.03192728151135184,
          0.007418660194360081,
          0.0882538351298039,
          0.0026058590577138045,
          0.1359918766072588,
          0.015281622262033407,
          -0.033853032881767116,
          0.09745805748377515,
          0.06497517268400493,
          0.10950237158532375,
          -0.08066520958834665,
          -0.13081727586278066,
          -0.04522496730555818,
          -0.07032001054700564,
          0.09093211229052096,
          0.1349229480220522,
          -0.03862367983106992,
          0.14718074771425518,
          0.17639279568435165,
          0.03352397750342742,
          -0.12560794191562807,
          0.1771877300725982,
          -0.01916014154782471,
          0.014777961665235621,
          -0.044701071072017325,
          -0.1408448916247264,
          -0.1689456238912069,
          0.11287196151893034,
          -0.1121772106673029,
          0.3873531580032428,
          -0.12949951577870092,
          -0.16195224250427448,
          0.05176116631349797,
          0.23396883062542523,
          0.02444204795373637,
          0.08951483969095665,
          -0.22079715595595054,
          -0.080693118071545,
          -0.1297878979635963,
          -0.24458174572013364,
          0.019314364075527314,
          -0.2777612717292183,
          -0.17177579048253883,
          -0.08832575549895974,
          -0.07571969714184894,
          0.04539076097765777
        ],
        [
          0.014943533621334638,
          0.10623074199367949,
          0.09721313231566193,
          0.1379154329017776,
          -0.0005976456515639898,
          0.01977358902362787,
          0.05411893451176585,
          0.026642439853923627,
          -0.051663329318719524,
          -0.05540921074832732,
          -0.0840474630709655,
          0.05657014810163716,
          0.0003114949553670735,
          -0.0877710029634015,
          -0.07425290242656475,
          -0.1560754816698409,
          0.11550650482131136,
          0.008250408418243408,
          -0.13575879598594776,
          0.0965279970320109,
          -0.05859421725217333,
          -0.20067311800468546,
          0.11610538391744342,
          -0.06353057361170923,
          -0.055695357404686265,
          -0.017462196186967597,
          0.1419578668281355,
          -0.016001422176702487,
          -0.1511412004236278,
          0.08969626144658185,
          -0.06697111009210749,
          0.21711361512810068,
          -0.00261050482528194,
          -0.2766363294049362,
          0.048450676495233,
          0.21781730349508813,
          0.1984174509877775,
          0.21403087238701593,
          -0.13442212249370247,
          0.09703776656902319,
          -0.09416309696447728,
          0.053809573199183044,
          -0.18243490572123103,
          -0.10476583882068898,
          -0.08007794867508564,
          0.12356930371617743,
          0.09119585278386168,
          0.03275627472599073,
          -0.1684354442172672,
          -0.03374710279119772,
          -0.12022480728897939,
          0.12555643691936944,
          0.14313381626713878,
          0.1170691785108818,
          -0.09533680769825201,
          -0.3465660171729326,
          -0.20637735062310117,
          0.1828553719775668,
          -0.028594993781678502,
          -0.09404615597311144,
          0.2118121602013618,
          0.15143079324756642,
          0.007581268019425954,
          -0.05278549573556686
        ],
        [
          -0.0005484913036350247,
          0.03437150292060932,
          0.2123441096260788,
          0.05553876629852306,
          0.09134208533266153,
          0.1686265759725393,
          -0.1416993599683959,
          0.09425235920488774,
          -0.027811778970335745,
          -0.30394338202799415,
          -0.2671679191286226,
          -0.1219645397351348,
          0.07055558663502627,
          0.01974997088470921,
          0.0416978333996326,
          0.2702532472762846,
          -0.14101183654688063,
          0.03381265784437551,
          0.050406964077902544,
          -0.09824804792503895,
          -0.0013694599414452774,
          -0.17635602763763247,
          0.22885010567746056,
          -0.037835685800192705,
          0.26372350754040336,
          0.04875774159418257,
          0.1691674645511316,
          -0.00041517806007022537,
          0.00920584180964437,
          -0.07099983663326392,
          0.03500466264372293,
          0.04542775371890857,
          -0.06317313841087076,
          -0.01897201152286329,
          -0.03364635070568383,
          0.3038413494678577,
          0.006416731427491752,
          0.18896105869625196,
          0.014693969304976346,
          0.08523267873380794,
          -0.13178180926856034,
          -0.036744740054097474,
          0.03867494616299984,
          0.21035414148518525,
          0.028611902670490724,
          0.16451077178056356,
          0.08776609955847044,
          0.23073417279773714,
          -0.00582114382471788,
          0.31686626787464534,
          -0.04985609362264729,
          -0.10420749003812177,
          -0.14830368034288616,
          0.28756417524685113,
          0.16043480386556014,
          -0.018632634490892988,
          0.1667895681343886,
          0.10644619886496569,
          0.2633634766011796,
          -0.18348031849909696,
          -0.021771093264596544,
          -0.05227852375157571,
          -0.2466055652720906,
          0.15850502764077268
        ],
        [
          -0.04349348165804331,
          0.10902476895125653,
          0.3339767086716827,
          -0.03907323954113275,
          -0.060204528895198395,
          0.009609671975930212,
          0.11472552450394516,
          -0.06590386679111652,
          -0.07484016137718641,
          0.1163196123376112,
          0.046560583395785234,
          -0.2414791398431705,
          -0.15058162701193167,
          0.19740296788504508,
          0.07846037147701553,
          -0.07481022136733931,
